{
  "3": [
    -0.00029710325599064324,
    -1.8005280783744543e-05,
    0.08937705668024018,
    0.5008102016247068
  ],
  "4": [
    -4.201979201398804e-07,
    -0.00029718729557467034,
    6.302268472231142e-05,
    0.08938515989698861,
    0.4989872479691164
  ],
  "5": [
    2.8860894754721872e-06,
    3.0132444872812275e-07,
    -0.0010185813937993635,
    -4.519364523507707e-05,
    0.12416150795779735,
    0.5007262457351115
  ],
  "6": [
    6.386168714613792e-09,
    2.8880053260865737e-06,
    -1.6576037764401134e-06,
    -0.0010189732113752407,
    0.00010169549737795105,
    0.12417619883117835,
    0.49915271330903643
  ],
  "7": [
    -3.143277787489748e-08,
    -4.615303541598207e-09,
    1.4309141435520432e-05,
    1.197955287724307e-06,
    -0.0021867237867639337,
    -7.349564507105632e-05,
    0.1533628260951568,
    0.5006123366669915
  ],
  "8": [
    -9.347142119377435e-11,
    -3.1470166443374946e-08,
    3.4627862560954114e-08,
    1.4320915693951071e-05,
    -3.894335895116029e-06,
    -0.0021877424412425016,
    0.00013475899419236904,
    0.15338365665255174,
    0.49931112124963345
  ],
  "9": [
    3.5706387078627036e-10,
    6.720732066003005e-11,
    -2.0152246501804878e-07,
    -2.489794028145909e-08,
    4.109264469751289e-05,
    2.8000845383359436e-06,
    -0.003731647356472406,
    -9.6893690272853e-05,
    0.17705978765032152,
    0.5004953139096459
  ]
}