{
  "3": [
    -8.681248016096317e-06,
    -5.55145848531419e-07,
    0.028002107006005243,
    0.5002775718139739
  ],
  "4": [
    -1.1658249351145217e-09,
    -8.68148118108331e-06,
    1.9430221281085084e-06,
    0.02800235682396871,
    0.49965303523253296
  ],
  "5": [
    8.49382336332882e-09,
    9.576309057178124e-10,
    -3.227505746484717e-05,
    -1.596035549014659e-06,
    0.04064160416387647,
    0.5002850034979646
  ],
  "6": [
    1.8259486610544857e-12,
    8.494371147927095e-09,
    -5.267061278882812e-09,
    -3.22763024124138e-05,
    3.5911111090183147e-06,
    0.04064212288476707,
    0.4996674959190416
  ],
  "7": [
    -9.69370016936198e-12,
    -1.5668463982223017e-12,
    4.764093641190865e-08,
    4.519664856990281e-09,
    -7.6759938369089e-05,
    -3.081532151915206e-06,
    0.052998416580873696,
    0.5002853217249517
  ],
  "8": [
    -2.854081457973815e-15,
    -9.694841801945129e-12,
    1.1751747558062874e-11,
    4.7644932030052576e-08,
    -1.4689243754044818e-08,
    -7.676378021740488e-05,
    5.649539642861098e-06,
    0.05299928970726244,
    0.49967901305943085
  ],
  "9": [
    1.1912480166698775e-14,
    2.506534617046735e-15,
    -7.275830654174914e-11,
    -1.0320715262976857e-11,
    1.5800172799190375e-07,
    1.2900507049274397e-08,
    -0.00014750276935698696,
    -4.961584626703642e-06,
    0.06505667001361558,
    0.5002818997600492
  ]
}